digraph Tree {
node [shape=box, style="filled, rounded", color="black", fontname="helvetica"] ;
edge [fontname="helvetica"] ;
0 [label=<X &le; 0.604<br/>squared_error = 0.088<br/>samples = 100<br/>value = 0.309>, fillcolor="#f7d7c0"] ;
1 [label=<X &le; 0.408<br/>squared_error = 0.011<br/>samples = 64<br/>value = 0.111>, fillcolor="#fdf6f1"] ;
0 -> 1 [labeldistance=2.5, labelangle=45, headlabel="True"] ;
2 [label=<squared_error = 0.003<br/>samples = 46<br/>value = 0.057>, fillcolor="#ffffff"] ;
1 -> 2 ;
3 [label=<squared_error = 0.004<br/>samples = 18<br/>value = 0.248>, fillcolor="#f9e0cf"] ;
1 -> 3 ;
4 [label=<X &le; 0.822<br/>squared_error = 0.032<br/>samples = 36<br/>value = 0.66>, fillcolor="#eb9e67"] ;
0 -> 4 [labeldistance=2.5, labelangle=-45, headlabel="False"] ;
5 [label=<squared_error = 0.008<br/>samples = 21<br/>value = 0.529>, fillcolor="#efb388"] ;
4 -> 5 ;
6 [label=<squared_error = 0.008<br/>samples = 15<br/>value = 0.844>, fillcolor="#e58139"] ;
4 -> 6 ;
}